<?xml version="1.0"?>
<opencv_storage>
<stage0>
  <maxWeakCount>19</maxWeakCount>
  <stageThreshold>-1.4568812847137451e+00</stageThreshold>
  <weakClassifiers>
    <_>
      <internalNodes>
        0 -1 18752 1.0492227971553802e-01</internalNodes>
      <leafValues>
        4.9309101700782776e-01 -6.5751022100448608e-01</leafValues></_>
    <_>
      <internalNodes>
        0 -1 8850 -3.2684481702744961e-03</internalNodes>
      <leafValues>
        7.0801514387130737e-01 -3.5511317849159241e-01</leafValues></_>
    <_>
      <internalNodes>
        0 -1 161857 3.7975751329213381e-03</internalNodes>
      <leafValues>
        -2.1438044309616089e-01 6.8471813201904297e-01</leafValues></_>
    <_>
      <internalNodes>
        0 -1 8156 2.1221372298896313e-03</internalNodes>
      <leafValues>
        -1.8479463458061218e-01 6.0876405239105225e-01</leafValues></_>
    <_>
      <internalNodes>
        0 -1 6057 -3.1877029687166214e-02</internalNodes>
      <leafValues>
        5.1100736856460571e-01 -1.3192270696163177e-01</leafValues></_>
    <_>
      <internalNodes>
        0 -1 161754 -2.1181080956012011e-03</internalNodes>
      <leafValues>
        5.6399881839752197e-01 -1.9614759087562561e-01</leafValues></_>
    <_>
      <internalNodes>
        0 -1 94644 -5.5838720872998238e-03</internalNodes>
      <leafValues>
        4.1995480656623840e-01 -1.6182738542556763e-01</leafValues></_>
    <_>
      <internalNodes>
        0 -1 70659 2.7053749654442072e-03</internalNodes>
      <leafValues>
        1.7002153396606445e-01 -5.4848837852478027e-01</leafValues></_>
    <_>
      <internalNodes>
        0 -1 12795 -8.5640270262956619e-03</internalNodes>
      <leafValues>
        4.0707743167877197e-01 -2.1305222809314728e-01</leafValues></_>
    <_>
      <internalNodes>
        0 -1 25237 1.4007989317178726e-02</internalNodes>
      <leafValues>
        -9.5161162316799164e-02 6.6102153062820435e-01</leafValues></_>
    <_>
      <internalNodes>
        0 -1 160507 -2.9214154928922653e-03</internalNodes>
      <leafValues>
        4.1406303644180298e-01 -1.5142855048179626e-01</leafValues></_>
    <_>
      <internalNodes>
        0 -1 98196 -1.5435311011970043e-02</internalNodes>
      <leafValues>
        -4.7136488556861877e-01 1.4548072218894958e-01</leafValues></_>
    <_>
      <internalNodes>
        0 -1 114135 8.9466199278831482e-03</internalNodes>
      <leafValues>
        6.6397301852703094e-02 -6.0602468252182007e-01</leafValues></_>
    <_>
      <internalNodes>
        0 -1 124883 -2.8587840497493744e-02</internalNodes>
      <leafValues>
        3.7056758999824524e-01 -1.5793627500534058e-01</leafValues></_>
    <_>
      <internalNodes>
        0 -1 8138 -7.1076821768656373e-04</internalNodes>
      <leafValues>
        5.1197206974029541e-01 -1.0172101855278015e-01</leafValues></_>
    <_>
      <internalNodes>
        0 -1 111790 4.2977865785360336e-02</internalNodes>
      <leafValues>
        9.6969611942768097e-02 -5.6729334592819214e-01</leafValues></_>
    <_>
      <internalNodes>
        0 -1 32547 -1.2221478391438723e-03</internalNodes>
      <leafValues>
        4.3473520874977112e-01 -1.1277497559785843e-01</leafValues></_>
    <_>
      <internalNodes>
        0 -1 80752 -4.8775197938084602e-03</internalNodes>
      <leafValues>
        -6.1677640676498413e-01 8.6597673594951630e-02</leafValues></_>
    <_>
      <internalNodes>
        0 -1 106695 1.2251525186002254e-03</internalNodes>
      <leafValues>
        1.2964004278182983e-01 -3.7064436078071594e-01</leafValues></_></weakClassifiers></stage0>
</opencv_storage>
